<?xml version="1.0"?>
<opencv_storage>
<stage13>
  <maxWeakCount>22</maxWeakCount>
  <stageThreshold>-1.7540221214294434e+00</stageThreshold>
  <weakClassifiers>
    <_>
      <internalNodes>
        0 -1 4158215 -1.9084546715021133e-02</internalNodes>
      <leafValues>
        1.7948718369007111e-01 -8.2145464420318604e-01</leafValues></_>
    <_>
      <internalNodes>
        0 -1 4436679 -6.4498657593503594e-05</internalNodes>
      <leafValues>
        2.4489944800734520e-02 -4.1496071219444275e-01</leafValues></_>
    <_>
      <internalNodes>
        0 -1 4483953 -2.8174676117487252e-05</internalNodes>
      <leafValues>
        1.7876279354095459e-01 -2.1200677752494812e-01</leafValues></_>
    <_>
      <internalNodes>
        0 -1 1690496 -9.4515172531828284e-04</internalNodes>
      <leafValues>
        2.3493354022502899e-01 -1.5836656093597412e-01</leafValues></_>
    <_>
      <internalNodes>
        0 -1 2685661 5.2219838835299015e-05</internalNodes>
      <leafValues>
        9.3810357153415680e-02 -3.9988121390342712e-01</leafValues></_>
    <_>
      <internalNodes>
        0 -1 2682773 -5.3693889640271664e-04</internalNodes>
      <leafValues>
        -6.2496918439865112e-01 9.7966983914375305e-02</leafValues></_>
    <_>
      <internalNodes>
        0 -1 4208659 -4.9207749543711543e-04</internalNodes>
      <leafValues>
        2.8081810474395752e-01 -1.6050606966018677e-01</leafValues></_>
    <_>
      <internalNodes>
        0 -1 1329768 -1.8644864030648023e-04</internalNodes>
      <leafValues>
        3.9736169576644897e-01 -1.1113265901803970e-01</leafValues></_>
    <_>
      <internalNodes>
        0 -1 4291786 -4.4779444579035044e-04</internalNodes>
      <leafValues>
        3.5974314808845520e-01 -1.0477738827466965e-01</leafValues></_>
    <_>
      <internalNodes>
        0 -1 4014101 -3.4731626510620117e-04</internalNodes>
      <leafValues>
        -5.0549745559692383e-01 7.7660471200942993e-02</leafValues></_>
    <_>
      <internalNodes>
        0 -1 2085168 -9.2090829275548458e-04</internalNodes>
      <leafValues>
        2.5259280204772949e-01 -1.6612316668033600e-01</leafValues></_>
    <_>
      <internalNodes>
        0 -1 1184615 1.7113818321377039e-03</internalNodes>
      <leafValues>
        -7.9119779169559479e-02 5.8772605657577515e-01</leafValues></_>
    <_>
      <internalNodes>
        0 -1 4437611 -5.0969690084457397e-02</internalNodes>
      <leafValues>
        5.5023109912872314e-01 -7.1454264223575592e-02</leafValues></_>
    <_>
      <internalNodes>
        0 -1 2691328 -2.0226615015417337e-04</internalNodes>
      <leafValues>
        2.6114588975906372e-01 -1.5292841196060181e-01</leafValues></_>
    <_>
      <internalNodes>
        0 -1 94111 -1.3503048103302717e-03</internalNodes>
      <leafValues>
        -6.6131979227066040e-01 7.5197771191596985e-02</leafValues></_>
    <_>
      <internalNodes>
        0 -1 1390437 -7.3759736551437527e-05</internalNodes>
      <leafValues>
        1.7883428931236267e-01 -2.1172785758972168e-01</leafValues></_>
    <_>
      <internalNodes>
        0 -1 3457557 9.9849494290538132e-06</internalNodes>
      <leafValues>
        1.5668293833732605e-01 -2.7490502595901489e-01</leafValues></_>
    <_>
      <internalNodes>
        0 -1 2095844 -4.7369106323458254e-04</internalNodes>
      <leafValues>
        -5.0762313604354858e-01 7.8066371381282806e-02</leafValues></_>
    <_>
      <internalNodes>
        0 -1 2206584 -3.9253209251910448e-04</internalNodes>
      <leafValues>
        2.9057908058166504e-01 -1.5803375840187073e-01</leafValues></_>
    <_>
      <internalNodes>
        0 -1 2088517 7.7629700535908341e-04</internalNodes>
      <leafValues>
        6.9352984428405762e-02 -6.6954261064529419e-01</leafValues></_>
    <_>
      <internalNodes>
        0 -1 2176837 -6.8164065480232239e-02</internalNodes>
      <leafValues>
        4.6387854218482971e-01 -1.0038359463214874e-01</leafValues></_>
    <_>
      <internalNodes>
        0 -1 4269540 1.1982838623225689e-03</internalNodes>
      <leafValues>
        -1.4178736507892609e-01 3.1930390000343323e-01</leafValues></_></weakClassifiers></stage13>
</opencv_storage>
