<?xml version="1.0"?>
<opencv_storage>
<stage2>
  <maxWeakCount>14</maxWeakCount>
  <stageThreshold>-2.0293662548065186e+00</stageThreshold>
  <weakClassifiers>
    <_>
      <internalNodes>
        0 -1 812234 -9.5306292176246643e-02</internalNodes>
      <leafValues>
        -1.3966479897499084e-01 -8.4235709905624390e-01</leafValues></_>
    <_>
      <internalNodes>
        0 -1 1828540 1.8915300024673343e-03</internalNodes>
      <leafValues>
        -6.7586392164230347e-01 -1.0523777455091476e-01</leafValues></_>
    <_>
      <internalNodes>
        0 -1 2258549 -9.2288106679916382e-03</internalNodes>
      <leafValues>
        2.9695433378219604e-01 -3.0452722311019897e-01</leafValues></_>
    <_>
      <internalNodes>
        0 -1 1654626 -3.4378468990325928e-03</internalNodes>
      <leafValues>
        1.5812481939792633e-01 -6.0826629400253296e-01</leafValues></_>
    <_>
      <internalNodes>
        0 -1 529863 -1.0111397132277489e-02</internalNodes>
      <leafValues>
        3.7980201840400696e-01 -2.3255027830600739e-01</leafValues></_>
    <_>
      <internalNodes>
        0 -1 3659826 -3.8918334757909179e-04</internalNodes>
      <leafValues>
        -8.3151751756668091e-01 1.0217598080635071e-01</leafValues></_>
    <_>
      <internalNodes>
        0 -1 3452450 -2.9098591767251492e-03</internalNodes>
      <leafValues>
        2.1334917843341827e-01 -3.8273996114730835e-01</leafValues></_>
    <_>
      <internalNodes>
        0 -1 2543592 -1.2767823645845056e-03</internalNodes>
      <leafValues>
        3.4796485304832458e-01 -2.5053641200065613e-01</leafValues></_>
    <_>
      <internalNodes>
        0 -1 3658312 7.9770036973059177e-04</internalNodes>
      <leafValues>
        1.0825940966606140e-01 -8.5850626230239868e-01</leafValues></_>
    <_>
      <internalNodes>
        0 -1 4463741 2.7126614004373550e-03</internalNodes>
      <leafValues>
        -2.2544707357883453e-01 3.8529679179191589e-01</leafValues></_>
    <_>
      <internalNodes>
        0 -1 4277004 -1.8911655060946941e-03</internalNodes>
      <leafValues>
        4.1132876276969910e-01 -2.0504860579967499e-01</leafValues></_>
    <_>
      <internalNodes>
        0 -1 1830836 -5.8148388052359223e-04</internalNodes>
      <leafValues>
        4.7770828008651733e-01 -1.6348826885223389e-01</leafValues></_>
    <_>
      <internalNodes>
        0 -1 94666 -6.8844715133309364e-03</internalNodes>
      <leafValues>
        4.9036586284637451e-01 -1.3524149358272552e-01</leafValues></_>
    <_>
      <internalNodes>
        0 -1 2583784 3.0898093245923519e-03</internalNodes>
      <leafValues>
        -1.6149617731571198e-01 4.1119191050529480e-01</leafValues></_></weakClassifiers></stage2>
</opencv_storage>
