<?xml version="1.0"?>
<opencv_storage>
<stage0>
  <maxWeakCount>10</maxWeakCount>
  <stageThreshold>-2.3564593791961670e+00</stageThreshold>
  <weakClassifiers>
    <_>
      <internalNodes>
        0 -1 2420908 -4.0792282670736313e-02</internalNodes>
      <leafValues>
        -3.0849477648735046e-01 -9.0916931629180908e-01</leafValues></_>
    <_>
      <internalNodes>
        0 -1 461981 -7.3079399764537811e-02</internalNodes>
      <leafValues>
        2.9265599325299263e-02 -8.1520372629165649e-01</leafValues></_>
    <_>
      <internalNodes>
        0 -1 3070304 -3.7129772827029228e-03</internalNodes>
      <leafValues>
        2.9463329911231995e-01 -5.1026266813278198e-01</leafValues></_>
    <_>
      <internalNodes>
        0 -1 1359616 -9.6427164971828461e-03</internalNodes>
      <leafValues>
        2.7840083837509155e-01 -6.1851173639297485e-01</leafValues></_>
    <_>
      <internalNodes>
        0 -1 165614 -1.5456692315638065e-02</internalNodes>
      <leafValues>
        4.6410390734672546e-01 -3.4349340200424194e-01</leafValues></_>
    <_>
      <internalNodes>
        0 -1 1722512 3.0190008692443371e-03</internalNodes>
      <leafValues>
        -3.4042537212371826e-01 3.3885601162910461e-01</leafValues></_>
    <_>
      <internalNodes>
        0 -1 2700707 4.1113374754786491e-04</internalNodes>
      <leafValues>
        1.4588125050067902e-01 -8.0695497989654541e-01</leafValues></_>
    <_>
      <internalNodes>
        0 -1 829506 -6.2620104290544987e-03</internalNodes>
      <leafValues>
        3.6761367321014404e-01 -2.9755672812461853e-01</leafValues></_>
    <_>
      <internalNodes>
        0 -1 4387647 5.9684866573661566e-04</internalNodes>
      <leafValues>
        -2.5237315893173218e-01 3.6703976988792419e-01</leafValues></_>
    <_>
      <internalNodes>
        0 -1 2693883 -7.3466706089675426e-04</internalNodes>
      <leafValues>
        -7.3680031299591064e-01 1.3951155543327332e-01</leafValues></_></weakClassifiers></stage0>
</opencv_storage>
