<?xml version="1.0"?>
<opencv_storage>
<stage12>
  <maxWeakCount>24</maxWeakCount>
  <stageThreshold>-2.0324137210845947e+00</stageThreshold>
  <weakClassifiers>
    <_>
      <internalNodes>
        0 -1 4436679 -1.2160753249190748e-04</internalNodes>
      <leafValues>
        -4.7159090638160706e-01 -8.4360188245773315e-01</leafValues></_>
    <_>
      <internalNodes>
        0 -1 1637242 -2.6137079112231731e-03</internalNodes>
      <leafValues>
        1.3902735710144043e-01 -4.2034581303596497e-01</leafValues></_>
    <_>
      <internalNodes>
        0 -1 899180 8.2063913345336914e-02</internalNodes>
      <leafValues>
        7.3437228798866272e-02 -5.8087599277496338e-01</leafValues></_>
    <_>
      <internalNodes>
        0 -1 2532698 -2.7292978484183550e-04</internalNodes>
      <leafValues>
        3.4004464745521545e-01 -1.4514768123626709e-01</leafValues></_>
    <_>
      <internalNodes>
        0 -1 4472927 -2.1965294145047665e-03</internalNodes>
      <leafValues>
        -4.9448984861373901e-01 1.4052781462669373e-01</leafValues></_>
    <_>
      <internalNodes>
        0 -1 193625 2.6838999474421144e-04</internalNodes>
      <leafValues>
        7.4251227080821991e-02 -4.3374785780906677e-01</leafValues></_>
    <_>
      <internalNodes>
        0 -1 2622894 8.0944901128532365e-06</internalNodes>
      <leafValues>
        1.9574251770973206e-01 -2.6184335350990295e-01</leafValues></_>
    <_>
      <internalNodes>
        0 -1 3929553 4.0606344118714333e-03</internalNodes>
      <leafValues>
        -1.6079810261726379e-01 2.7413284778594971e-01</leafValues></_>
    <_>
      <internalNodes>
        0 -1 4320455 1.9898885511793196e-04</internalNodes>
      <leafValues>
        -1.5279172360897064e-01 2.8331416845321655e-01</leafValues></_>
    <_>
      <internalNodes>
        0 -1 3292145 -8.8238145690411329e-04</internalNodes>
      <leafValues>
        3.9267098903656006e-01 -1.1973398178815842e-01</leafValues></_>
    <_>
      <internalNodes>
        0 -1 3431198 2.7860797126777470e-04</internalNodes>
      <leafValues>
        7.4058130383491516e-02 -6.5352147817611694e-01</leafValues></_>
    <_>
      <internalNodes>
        0 -1 1139063 -1.1153807863593102e-03</internalNodes>
      <leafValues>
        2.9133027791976929e-01 -1.6933999955654144e-01</leafValues></_>
    <_>
      <internalNodes>
        0 -1 200871 -1.5061991289258003e-03</internalNodes>
      <leafValues>
        3.3557876944541931e-01 -1.5605399012565613e-01</leafValues></_>
    <_>
      <internalNodes>
        0 -1 200861 8.0392678501084447e-04</internalNodes>
      <leafValues>
        -1.3943211734294891e-01 3.3391028642654419e-01</leafValues></_>
    <_>
      <internalNodes>
        0 -1 2437792 -6.3218281138688326e-04</internalNodes>
      <leafValues>
        -3.9889645576477051e-01 1.2308993190526962e-01</leafValues></_>
    <_>
      <internalNodes>
        0 -1 3326800 -9.9121220409870148e-04</internalNodes>
      <leafValues>
        4.0981891751289368e-01 -1.1279606819152832e-01</leafValues></_>
    <_>
      <internalNodes>
        0 -1 2700618 9.0152243501506746e-05</internalNodes>
      <leafValues>
        7.4403882026672363e-02 -6.3904535770416260e-01</leafValues></_>
    <_>
      <internalNodes>
        0 -1 1940446 1.3539673527702689e-03</internalNodes>
      <leafValues>
        -1.4534881711006165e-01 3.3857986330986023e-01</leafValues></_>
    <_>
      <internalNodes>
        0 -1 1613203 -2.2659568116068840e-02</internalNodes>
      <leafValues>
        -8.4938931465148926e-01 5.5766113102436066e-02</leafValues></_>
    <_>
      <internalNodes>
        0 -1 91758 -2.4573344737291336e-02</internalNodes>
      <leafValues>
        4.8841935396194458e-01 -1.0612510889768600e-01</leafValues></_>
    <_>
      <internalNodes>
        0 -1 64323 -1.3264063745737076e-02</internalNodes>
      <leafValues>
        -8.3481794595718384e-01 5.3865436464548111e-02</leafValues></_>
    <_>
      <internalNodes>
        0 -1 1650617 3.3699441701173782e-04</internalNodes>
      <leafValues>
        -1.7384530603885651e-01 3.1087738275527954e-01</leafValues></_>
    <_>
      <internalNodes>
        0 -1 3229163 2.2584961243410362e-06</internalNodes>
      <leafValues>
        1.5525005757808685e-01 -3.0125105381011963e-01</leafValues></_>
    <_>
      <internalNodes>
        0 -1 1064702 1.7893565818667412e-03</internalNodes>
      <leafValues>
        -1.3905784487724304e-01 3.2320845127105713e-01</leafValues></_></weakClassifiers></stage12>
</opencv_storage>
