<?xml version="1.0"?>
<opencv_storage>
<stage15>
  <maxWeakCount>30</maxWeakCount>
  <stageThreshold>-1.9345242977142334e+00</stageThreshold>
  <weakClassifiers>
    <_>
      <internalNodes>
        0 -1 571262 -1.3539439439773560e-01</internalNodes>
      <leafValues>
        1. -8.1994193792343140e-01</leafValues></_>
    <_>
      <internalNodes>
        0 -1 4484277 -1.0648674651747569e-04</internalNodes>
      <leafValues>
        1.1514544486999512e-01 -4.2152494192123413e-01</leafValues></_>
    <_>
      <internalNodes>
        0 -1 766857 -2.1833741664886475e-01</internalNodes>
      <leafValues>
        6.9505369663238525e-01 -7.6834194362163544e-02</leafValues></_>
    <_>
      <internalNodes>
        0 -1 4028801 -4.6193050220608711e-03</internalNodes>
      <leafValues>
        -6.6529113054275513e-01 6.8794384598731995e-02</leafValues></_>
    <_>
      <internalNodes>
        0 -1 3925235 -6.1818351969122887e-03</internalNodes>
      <leafValues>
        3.1976816058158875e-01 -1.3807344436645508e-01</leafValues></_>
    <_>
      <internalNodes>
        0 -1 3517863 1.3796987477689981e-03</internalNodes>
      <leafValues>
        -1.5273873507976532e-01 3.0121853947639465e-01</leafValues></_>
    <_>
      <internalNodes>
        0 -1 1476174 -7.0475690066814423e-02</internalNodes>
      <leafValues>
        -8.3768469095230103e-01 4.7985393553972244e-02</leafValues></_>
    <_>
      <internalNodes>
        0 -1 4179417 -5.1353257149457932e-03</internalNodes>
      <leafValues>
        3.1773740053176880e-01 -1.3348005712032318e-01</leafValues></_>
    <_>
      <internalNodes>
        0 -1 118745 -1.1321228521410376e-04</internalNodes>
      <leafValues>
        4.6299982070922852e-01 -1.0952091962099075e-01</leafValues></_>
    <_>
      <internalNodes>
        0 -1 4408221 7.0287729613482952e-04</internalNodes>
      <leafValues>
        -1.0374788194894791e-01 4.6328857541084290e-01</leafValues></_>
    <_>
      <internalNodes>
        0 -1 4347421 -4.9205669201910496e-03</internalNodes>
      <leafValues>
        3.6666885018348694e-01 -1.1768727004528046e-01</leafValues></_>
    <_>
      <internalNodes>
        0 -1 39206 3.1252796761691570e-03</internalNodes>
      <leafValues>
        -1.3491562008857727e-01 3.3316746354103088e-01</leafValues></_>
    <_>
      <internalNodes>
        0 -1 3485023 -2.3524407879449427e-04</internalNodes>
      <leafValues>
        2.2029502689838409e-01 -1.9822791218757629e-01</leafValues></_>
    <_>
      <internalNodes>
        0 -1 2863198 7.0209248224273324e-04</internalNodes>
      <leafValues>
        -5.1383934915065765e-02 5.7683873176574707e-01</leafValues></_>
    <_>
      <internalNodes>
        0 -1 3656566 -3.1338195549324155e-04</internalNodes>
      <leafValues>
        -7.5109314918518066e-01 6.8069256842136383e-02</leafValues></_>
    <_>
      <internalNodes>
        0 -1 783648 1.1870178859680891e-03</internalNodes>
      <leafValues>
        -1.2993112206459045e-01 3.7231761217117310e-01</leafValues></_>
    <_>
      <internalNodes>
        0 -1 1417462 9.5346674788743258e-04</internalNodes>
      <leafValues>
        8.3787724375724792e-02 -6.1147457361221313e-01</leafValues></_>
    <_>
      <internalNodes>
        0 -1 2293749 -1.3715692330151796e-03</internalNodes>
      <leafValues>
        6.5530806779861450e-01 -8.2700684666633606e-02</leafValues></_>
    <_>
      <internalNodes>
        0 -1 1675517 1.3142027892172337e-03</internalNodes>
      <leafValues>
        -7.9412706196308136e-02 6.2939357757568359e-01</leafValues></_>
    <_>
      <internalNodes>
        0 -1 845776 -8.8181882165372372e-04</internalNodes>
      <leafValues>
        3.9872869849205017e-01 -1.2875843048095703e-01</leafValues></_>
    <_>
      <internalNodes>
        0 -1 3972698 -5.8439187705516815e-04</internalNodes>
      <leafValues>
        -7.7091169357299805e-01 7.1982800960540771e-02</leafValues></_>
    <_>
      <internalNodes>
        0 -1 1050772 -1.1423714749980718e-04</internalNodes>
      <leafValues>
        2.2824732959270477e-01 -2.2141587734222412e-01</leafValues></_>
    <_>
      <internalNodes>
        0 -1 1798940 1.5010355855338275e-04</internalNodes>
      <leafValues>
        1.1527472734451294e-01 -4.6265345811843872e-01</leafValues></_>
    <_>
      <internalNodes>
        0 -1 2111886 -3.4996942849829793e-04</internalNodes>
      <leafValues>
        2.7502354979515076e-01 -1.9588752090930939e-01</leafValues></_>
    <_>
      <internalNodes>
        0 -1 1993274 3.6370866000652313e-03</internalNodes>
      <leafValues>
        -1.1416424065828323e-01 4.5415851473808289e-01</leafValues></_>
    <_>
      <internalNodes>
        0 -1 2968831 -1.7305857909377664e-04</internalNodes>
      <leafValues>
        -6.5103501081466675e-01 8.3789393305778503e-02</leafValues></_>
    <_>
      <internalNodes>
        0 -1 3433742 -1.8033187370747328e-04</internalNodes>
      <leafValues>
        2.8985357284545898e-01 -1.8772386014461517e-01</leafValues></_>
    <_>
      <internalNodes>
        0 -1 4330487 -8.9314654469490051e-02</internalNodes>
      <leafValues>
        6.2417858839035034e-01 -8.1640049815177917e-02</leafValues></_>
    <_>
      <internalNodes>
        0 -1 1012412 -4.1202846914529800e-03</internalNodes>
      <leafValues>
        2.9617196321487427e-01 -1.7467549443244934e-01</leafValues></_>
    <_>
      <internalNodes>
        0 -1 1395901 -4.4837919995188713e-03</internalNodes>
      <leafValues>
        3.5918509960174561e-01 -1.5918186306953430e-01</leafValues></_></weakClassifiers></stage15>
</opencv_storage>
