<?xml version="1.0"?>
<opencv_storage>
<stage3>
  <maxWeakCount>19</maxWeakCount>
  <stageThreshold>-1.9948269128799438e+00</stageThreshold>
  <weakClassifiers>
    <_>
      <internalNodes>
        0 -1 449617 -1.1621798574924469e-01</internalNodes>
      <leafValues>
        -4.2038217186927795e-01 -8.4410846233367920e-01</leafValues></_>
    <_>
      <internalNodes>
        0 -1 30433 -3.2154999673366547e-02</internalNodes>
      <leafValues>
        7.6734572649002075e-02 -4.8979344964027405e-01</leafValues></_>
    <_>
      <internalNodes>
        0 -1 2416555 -4.0905892848968506e-02</internalNodes>
      <leafValues>
        3.6082473397254944e-01 -2.3227901756763458e-01</leafValues></_>
    <_>
      <internalNodes>
        0 -1 4413170 1.5860117855481803e-04</internalNodes>
      <leafValues>
        -2.4699404835700989e-01 2.5846657156944275e-01</leafValues></_>
    <_>
      <internalNodes>
        0 -1 3478263 -1.1596971889957786e-03</internalNodes>
      <leafValues>
        2.5689971446990967e-01 -2.5699210166931152e-01</leafValues></_>
    <_>
      <internalNodes>
        0 -1 2960774 -1.1019497178494930e-03</internalNodes>
      <leafValues>
        -8.4325063228607178e-01 1.2947918474674225e-01</leafValues></_>
    <_>
      <internalNodes>
        0 -1 721701 4.4442072510719299e-02</internalNodes>
      <leafValues>
        -1.8332552909851074e-01 4.8134768009185791e-01</leafValues></_>
    <_>
      <internalNodes>
        0 -1 2931184 1.0654740035533905e-03</internalNodes>
      <leafValues>
        1.4753443002700806e-01 -6.2251275777816772e-01</leafValues></_>
    <_>
      <internalNodes>
        0 -1 3642803 -1.7819547792896628e-03</internalNodes>
      <leafValues>
        3.4538641571998596e-01 -2.2663812339305878e-01</leafValues></_>
    <_>
      <internalNodes>
        0 -1 1064854 -7.6753558823838830e-04</internalNodes>
      <leafValues>
        3.2938778400421143e-01 -1.9810788333415985e-01</leafValues></_>
    <_>
      <internalNodes>
        0 -1 4321890 -1.5302423853427172e-03</internalNodes>
      <leafValues>
        3.1728041172027588e-01 -2.0594981312751770e-01</leafValues></_>
    <_>
      <internalNodes>
        0 -1 4490642 -2.2381189046427608e-04</internalNodes>
      <leafValues>
        2.7493789792060852e-01 -2.3334313929080963e-01</leafValues></_>
    <_>
      <internalNodes>
        0 -1 107403 -4.2788000428117812e-05</internalNodes>
      <leafValues>
        1.5115433931350708e-01 -4.1025024652481079e-01</leafValues></_>
    <_>
      <internalNodes>
        0 -1 2854162 -9.5760845579206944e-04</internalNodes>
      <leafValues>
        3.6772146821022034e-01 -1.7168901860713959e-01</leafValues></_>
    <_>
      <internalNodes>
        0 -1 3220010 -9.4848612206988037e-05</internalNodes>
      <leafValues>
        -6.5144652128219604e-01 1.0475865006446838e-01</leafValues></_>
    <_>
      <internalNodes>
        0 -1 3220010 1.0781033779494464e-04</internalNodes>
      <leafValues>
        7.4976727366447449e-02 -7.4512130022048950e-01</leafValues></_>
    <_>
      <internalNodes>
        0 -1 680186 -1.7572908836882561e-04</internalNodes>
      <leafValues>
        2.4781541526317596e-01 -2.6107621192932129e-01</leafValues></_>
    <_>
      <internalNodes>
        0 -1 3829750 -1.9187473226338625e-03</internalNodes>
      <leafValues>
        4.2751944065093994e-01 -1.5254256129264832e-01</leafValues></_>
    <_>
      <internalNodes>
        0 -1 3688017 -1.2533410917967558e-03</internalNodes>
      <leafValues>
        3.1768834590911865e-01 -1.9662843644618988e-01</leafValues></_></weakClassifiers></stage3>
</opencv_storage>
